{
 "schema": "hiv-supervised-complement-v1",
 "drug_class": "NNRTI",
 "date": "2026-07-12",
 "gene": "RT",
 "drug_trained": "EFV",
 "cutoff_fold": 3.0,
 "solver": "liblinear-logistic-L2",
 "C": 1.0,
 "label_source": "Stanford HIVDB PhenoSense fold-change (free, independent)",
 "n_train": 4222,
 "n_features": 1063,
 "intercept": -1.8022,
 "feature_key": "<pos><aa> of a NON-WT residue (e.g. '103N'); risk = sigmoid(intercept + sum coef)",
 "deployability": {
  "leave_study_out_blindspot_auroc": 0.81
 },
 "honest_scope": "Blind-spot RANKING complement for NNRTI (trained on EFV). NOT a hard R/S rule; complements \u2014 does not replace \u2014 the deployed catalog. In-distribution to Stanford; supervised (needs the free label to have been trained).",
 "weights": {
  "1H": 0.22917,
  "1L": -0.22136,
  "2V": 0.09081,
  "3A": 0.05523,
  "3C": -1.00868,
  "4H": -0.09794,
  "4Q": -0.25929,
  "4S": 0.5388,
  "4T": -0.47493,
  "5M": 0.04053,
  "5V": -0.1745,
  "6A": 0.23992,
  "6D": -0.34678,
  "6G": -0.22721,
  "6K": -0.33893,
  "6N": 0.04832,
  "6Q": -0.12523,
  "7A": 0.5901,
  "7I": 0.02477,
  "7P": 0.04029,
  "8I": -0.9717,
  "9Q": 0.08209,
  "9R": 0.15602,
  "9S": -0.63337,
  "10I": -0.04423,
  "11A": 0.13862,
  "11N": -0.08211,
  "11Q": -0.20256,
  "11R": 0.00663,
  "11T": 0.40114,
  "13N": 0.31902,
  "13R": 0.553,
  "14A": -0.01002,
  "14L": 0.10007,
  "14S": 0.04305,
  "15E": 0.67918,
  "16L": -0.32434,
  "16V": 0.01827,
  "18D": -0.24529,
  "19S": -0.05638,
  "20Q": 0.40903,
  "20R": -0.06772,
  "21I": 0.80006,
  "22N": -0.12652,
  "22R": -0.23784,
  "23R": -0.13614,
  "24G": 0.04326,
  "26M": 0.00881,
  "27A": -0.0348,
  "27I": 0.33201,
  "27P": 0.13387,
  "27S": -0.58771,
  "28A": 0.98621,
  "28D": -0.17214,
  "28G": -0.06266,
  "28K": 0.85657,
  "28Q": 0.00275,
  "28R": 0.10472,
  "29G": 0.0218,
  "29K": -0.72861,
  "30R": -0.18442,
  "31L": 0.14979,
  "31R": -0.14594,
  "31V": -0.10352,
  "32E": 0.22212,
  "32N": 0.37809,
  "32Q": -0.29415,
  "32R": 0.27408,
  "32T": -0.0658,
  "33G": 0.03722,
  "33V": -0.4786,
  "34I": 0.19367,
  "35A": 0.06627,
  "35E": 0.47617,
  "35I": -0.074,
  "35K": -0.33583,
  "35L": 0.55762,
  "35M": 0.0196,
  "35Q": -0.2732,
  "35R": 1.18407,
  "35T": -0.01784,
  "36A": -0.30563,
  "36D": -0.65374,
  "36K": -0.30146,
  "36Q": 0.114,
  "37L": -0.02899,
  "38F": -0.42337,
  "38Y": 0.05315,
  "39A": -0.02325,
  "39D": -0.3969,
  "39E": 0.30423,
  "39G": 0.1154,
  "39I": 0.24452,
  "39K": 0.45983,
  "39L": -0.64146,
  "39M": 1.43851,
  "39N": 0.18511,
  "39P": -0.00674,
  "39R": -0.02938,
  "39S": -0.40406,
  "40D": 0.2726,
  "40F": -0.86895,
  "40K": 0.57803,
  "40Q": -0.15563,
  "40V": -0.50148,
  "41I": -0.92726,
  "41L": -0.31286,
  "42D": 0.02425,
  "42K": 0.23976,
  "43A": -0.15314,
  "43E": -0.10117,
  "43M": -0.02904,
  "43N": 0.01462,
  "43Q": 0.09116,
  "43R": -0.13107,
  "43S": -0.00908,
  "43T": -0.01593,
  "44A": 0.38379,
  "44D": -0.21549,
  "44G": -0.14057,
  "44K": -0.11435,
  "45E": 0.54923,
  "46Q": -0.30841,
  "47F": -0.06059,
  "47L": 0.19862,
  "47N": 0.01656,
  "47V": 0.1089,
  "48E": -0.47358,
  "48L": -0.17747,
  "48P": 0.1169,
  "48T": 0.13438,
  "49Q": -0.24941,
  "49R": -0.11473,
  "49T": 0.53183,
  "50M": -0.07201,
  "50V": 0.2467,
  "53D": 0.5423,
  "53G": -0.2971,
  "53K": 0.24495,
  "53Q": 0.09544,
  "54I": 0.02682,
  "56C": 0.10482,
  "57D": -0.2704,
  "57H": 0.06201,
  "57K": 0.00806,
  "58I": -0.41905,
  "58N": 0.25451,
  "58S": 0.04284,
  "59S": 0.22013,
  "60A": -0.43833,
  "60I": -0.19412,
  "60L": -0.1387,
  "62G": -0.08803,
  "62V": 0.18734,
  "63K": 0.13018,
  "63L": 0.14773,
  "63V": 0.03362,
  "64H": 0.16275,
  "64N": -0.13412,
  "64R": -0.1146,
  "64Y": 0.52527,
  "65E": 0.8254,
  "65N": -0.10835,
  "65R": 0.30635,
  "66R": 0.03897,
  "67A": -0.32729,
  "67E": -0.33793,
  "67G": -0.05011,
  "67H": 0.63424,
  "67N": 0.12545,
  "67S": 0.12428,
  "67T": -0.02396,
  "67V": -0.01688,
  "68G": -0.09107,
  "68I": -0.13991,
  "68K": 0.17819,
  "68N": 0.4386,
  "68R": 0.2471,
  "68T": -0.23446,
  "69A": -0.41628,
  "69D": -0.10841,
  "69E": 0.26823,
  "69G": 0.40106,
  "69H": -0.00492,
  "69I": -0.37117,
  "69K": -0.39418,
  "69N": -0.15481,
  "69S": -0.0553,
  "69V": -0.00845,
  "69Y": -0.0352,
  "70A": -0.01291,
  "70E": -0.58486,
  "70G": -1.13228,
  "70I": -0.26353,
  "70N": 0.45119,
  "70Q": -0.49776,
  "70R": -0.18144,
  "70S": 0.08668,
  "70T": 0.08895,
  "72G": 0.2502,
  "72S": 0.05037,
  "73L": 0.0397,
  "73M": 0.47632,
  "74F": 0.25607,
  "74I": 0.35369,
  "74V": 0.76933,
  "75A": 0.17993,
  "75I": 1.0244,
  "75L": 0.96766,
  "75M": 0.1529,
  "75S": 0.23386,
  "75T": 0.90829,
  "76N": 0.04057,
  "76V": -0.07937,
  "77C": 0.04284,
  "77L": -0.37319,
  "79D": -0.05046,
  "79G": 0.01369,
  "79K": -0.07981,
  "80F": -0.22694,
  "82N": 0.50069,
  "82R": 0.21928,
  "83G": -0.12422,
  "83K": -0.64453,
  "83S": -0.07705,
  "84I": -0.12505,
  "85H": -0.04936,
  "85R": 0.01116,
  "86E": 0.13315,
  "86N": 0.43566,
  "87L": 0.56641,
  "88C": -0.77659,
  "88S": -0.48638,
  "89K": 0.0201,
  "90A": -0.15389,
  "90I": 0.15503,
  "90L": 0.13832,
  "91K": -0.00535,
  "91L": -0.1745,
  "91R": 0.01979,
  "93R": 0.16811,
  "94L": -0.07264,
  "94M": 0.05148,
  "94V": 0.13504,
  "95S": -0.0989,
  "96N": -0.0237,
  "98E": -0.63259,
  "98G": 1.51935,
  "98S": 0.1244,
  "100I": 3.38331,
  "100V": 0.54693,
  "101A": 0.26951,
  "101E": 1.90911,
  "101H": 2.13465,
  "101N": -0.62265,
  "101P": 3.73832,
  "101Q": 1.35529,
  "101R": 0.37441,
  "101S": -0.00096,
  "101T": 0.1264,
  "102E": 0.39027,
  "102G": 0.02125,
  "102H": 0.32903,
  "102L": 0.20992,
  "102M": 0.15598,
  "102N": 0.85976,
  "102Q": 0.39195,
  "102R": 0.34235,
  "102W": 0.05526,
  "103E": -0.04436,
  "103H": 1.2749,
  "103N": 4.94279,
  "103Q": -0.19878,
  "103R": 0.2441,
  "103S": 2.73086,
  "103T": -0.28776,
  "104N": -0.27767,
  "104Q": -0.01345,
  "104R": 0.25486,
  "105A": -0.26995,
  "105L": 0.16068,
  "105P": -0.04506,
  "105T": 0.00515,
  "106A": 2.03649,
  "106I": 0.89837,
  "106L": 0.54463,
  "106M": 2.42764,
  "107A": -0.53179,
  "107K": -0.02219,
  "107P": 0.02728,
  "107S": 0.0148,
  "108I": 0.82955,
  "109I": -0.04964,
  "109M": -0.11646,
  "109S": 0.16145,
  "109V": -0.04219,
  "110E": 0.49851,
  "110G": 0.0301,
  "110N": 0.15598,
  "111G": 0.71755,
  "111I": -0.01622,
  "111L": -0.21371,
  "111M": -0.36206,
  "112D": -0.20889,
  "113E": -0.28127,
  "113N": -0.34383,
  "115F": 0.23261,
  "115H": -0.14988,
  "116Y": 0.44509,
  "117A": -0.45648,
  "118C": 0.03546,
  "118I": -0.07592,
  "119S": 0.41172,
  "121A": -0.05314,
  "121C": -0.258,
  "121E": 0.01378,
  "121H": 0.00984,
  "121Y": -0.14956,
  "123E": -0.55242,
  "123G": -0.38913,
  "123K": -0.46273,
  "123N": -0.05771,
  "123Q": 0.00804,
  "123S": 0.3532,
  "125G": -0.03788,
  "125K": 0.11894,
  "126R": -0.88486,
  "127C": -0.37432,
  "128A": -0.05279,
  "129S": 0.12925,
  "129V": 0.07256,
  "130C": -0.06963,
  "130L": -0.12153,
  "131P": 0.03766,
  "131S": 0.0293,
  "132K": 0.13525,
  "132L": 0.3274,
  "132V": -0.49626,
  "134C": -0.51363,
  "134G": -0.50835,
  "134N": -0.02513,
  "134R": 0.24278,
  "135A": -0.03974,
  "135K": 0.20797,
  "135L": 0.17954,
  "135M": 0.43075,
  "135R": 0.39292,
  "135T": 0.27924,
  "135V": -0.02555,
  "136D": -0.0754,
  "136H": 0.06525,
  "136I": -0.13756,
  "136K": 0.04108,
  "136S": -0.24722,
  "136T": -0.23769,
  "136Y": 0.02822,
  "137H": -0.71608,
  "137I": -0.29196,
  "137K": -0.40628,
  "137S": 0.44938,
  "137T": -0.54133,
  "138A": -0.11195,
  "138D": -0.22683,
  "138G": -0.0205,
  "138K": 0.53889,
  "138Q": 1.16865,
  "138R": 0.62565,
  "138V": -0.15631,
  "139A": 0.04082,
  "139I": -0.83479,
  "139K": 0.19413,
  "139M": -0.00383,
  "139R": 0.29234,
  "139S": 0.15589,
  "140S": -0.16289,
  "140T": -0.18101,
  "141E": -0.28196,
  "142A": 0.1192,
  "142D": 0.23299,
  "142F": -0.2266,
  "142L": -0.19382,
  "142M": 0.16221,
  "142S": 0.08093,
  "142T": 0.206,
  "142V": -0.06251,
  "143G": -0.23416,
  "143I": -0.02264,
  "143K": -0.05887,
  "143T": 0.15679,
  "144F": -0.19129,
  "144S": 0.10746,
  "145C": -0.49686,
  "145E": -0.02847,
  "145M": -0.26662,
  "145R": -0.34544,
  "145V": -0.19423,
  "146F": -0.00472,
  "147K": -0.42017,
  "147T": -0.20959,
  "148E": -0.10517,
  "148G": 0.16748,
  "149H": 0.00829,
  "149P": -0.0226,
  "149V": 0.08867,
  "150H": 0.08209,
  "150Q": 0.20443,
  "150S": 0.09629,
  "150T": 0.0261,
  "151L": 0.1047,
  "151M": 0.22624,
  "152R": 0.10993,
  "152V": 0.21666,
  "152W": -0.07036,
  "153R": -0.10432,
  "154E": -0.09698,
  "155R": -0.36359,
  "156L": -0.07865,
  "157A": 0.57576,
  "157S": 0.19862,
  "158S": 0.46627,
  "158T": 0.10639,
  "159L": 0.46514,
  "159V": -0.77804,
  "160L": 0.32722,
  "162A": -0.35607,
  "162C": -0.03589,
  "162D": 0.00632,
  "162F": -1.33036,
  "162G": 0.05026,
  "162H": -0.26722,
  "162N": 0.02056,
  "162T": 0.1189,
  "162W": -0.2383,
  "162Y": -0.29701,
  "163A": 0.01776,
  "163C": 0.12855,
  "163G": -0.27602,
  "163I": 0.06392,
  "163T": 0.61002,
  "164I": 0.42483,
  "164L": 0.37648,
  "165A": 0.00542,
  "165I": -0.65395,
  "165L": 0.21762,
  "165M": 0.13301,
  "165V": -0.17897,
  "166I": 0.51165,
  "166N": 0.38128,
  "166Q": -0.98688,
  "166R": -0.5799,
  "166T": 0.14278,
  "167V": 0.30079,
  "169A": 0.01843,
  "169D": -0.21966,
  "169G": -0.1251,
  "169K": 0.06293,
  "169R": -0.11517,
  "170L": 0.45035,
  "170S": -0.04561,
  "170T": -0.01677,
  "171C": 0.58278,
  "171L": -0.73743,
  "171Y": 0.125,
  "172K": -0.04546,
  "173A": 0.33248,
  "173D": 0.09133,
  "173E": -0.36665,
  "173I": -0.20123,
  "173L": 0.02548,
  "173M": -0.6513,
  "173N": 0.1179,
  "173Q": 0.071,
  "173R": -0.05681,
  "173S": -0.59209,
  "173T": -0.08526,
  "173V": -0.08426,
  "174A": -0.03479,
  "174E": -0.25874,
  "174G": -0.27818,
  "174H": 0.26572,
  "174K": -0.0288,
  "174L": -0.34033,
  "174N": -0.09169,
  "174P": 0.09857,
  "174R": 0.74608,
  "175H": -0.13706,
  "175Y": 0.63849,
  "176A": 0.02419,
  "176Q": -0.15762,
  "176S": -0.30444,
  "176T": 0.21489,
  "177E": 0.07055,
  "177G": 0.02088,
  "177K": 0.36105,
  "177N": 0.40645,
  "178F": 0.01649,
  "178L": 0.2948,
  "178M": 0.31366,
  "178R": 0.25852,
  "178V": 0.11467,
  "179A": -0.52529,
  "179D": 2.25862,
  "179E": 1.60294,
  "179F": 0.28385,
  "179G": 0.08854,
  "179I": -0.18473,
  "179L": -0.07588,
  "179M": -1.30491,
  "179T": -0.59021,
  "179Y": 0.00411,
  "180L": -0.00768,
  "180V": -0.86548,
  "181C": 1.38668,
  "181F": 0.04595,
  "181G": 0.09868,
  "181I": -0.42478,
  "181V": 0.52571,
  "182H": 0.00628,
  "182P": -0.05919,
  "182S": -0.00269,
  "184I": 0.66127,
  "184V": -0.43278,
  "185N": -0.18297,
  "187F": -0.18786,
  "188C": 1.74249,
  "188H": 1.83586,
  "188L": 5.96342,
  "189A": 0.14791,
  "189I": 0.6777,
  "189L": 0.19119,
  "190A": 3.35058,
  "190C": 1.75956,
  "190E": 2.60612,
  "190Q": 3.10639,
  "190R": -0.13143,
  "190S": 3.3982,
  "190T": 0.78254,
  "190V": 0.88905,
  "191T": -0.23,
  "192H": 0.09838,
  "192N": 0.08668,
  "192Y": 0.25241,
  "193F": -0.81837,
  "193M": 0.32989,
  "194D": -0.1778,
  "194G": -0.11928,
  "194K": -0.06115,
  "194N": 0.0713,
  "194Q": 0.03668,
  "194S": 0.03683,
  "194T": 0.14929,
  "195K": 0.08405,
  "195L": -0.42263,
  "195M": 0.0373,
  "195R": 0.07388,
  "195T": -0.35677,
  "195V": 0.20993,
  "196D": 0.55047,
  "196E": -0.59264,
  "196K": 0.39749,
  "196Q": -0.50974,
  "196R": -0.00994,
  "196S": 0.14806,
  "197E": -0.01286,
  "197H": 0.1935,
  "197K": -0.55382,
  "197L": -0.75643,
  "197P": -0.49783,
  "197R": -0.55619,
  "197T": 0.13255,
  "198E": 0.15373,
  "198Y": 0.05794,
  "199K": -0.58273,
  "200A": -0.12831,
  "200E": -0.0853,
  "200G": -0.03953,
  "200I": -0.0897,
  "200K": -0.45984,
  "200L": -0.08214,
  "200M": -0.18499,
  "200R": -0.03782,
  "200S": -1.12857,
  "200V": -0.14575,
  "201E": -0.03938,
  "201I": 0.07869,
  "201R": -0.26474,
  "202M": 0.00139,
  "202T": 0.03535,
  "202V": -0.47945,
  "203A": -0.43254,
  "203D": 0.19352,
  "203G": 0.35127,
  "203K": 0.39328,
  "203N": -0.02242,
  "203Q": 0.77772,
  "203R": -0.05574,
  "203T": 0.19416,
  "203V": 0.37476,
  "204A": 0.04973,
  "204D": -0.29268,
  "204G": 0.14256,
  "204K": -0.167,
  "204N": 0.19486,
  "204Q": -0.43757,
  "204V": 0.31149,
  "205F": 0.21733,
  "206I": 0.74119,
  "206K": -0.32616,
  "206S": 0.21937,
  "207A": 0.06583,
  "207D": 0.00909,
  "207E": -0.05715,
  "207G": -0.1134,
  "207H": -0.06444,
  "207K": -0.88536,
  "207N": 0.36841,
  "207R": 0.1281,
  "207S": 0.09605,
  "207T": -0.14155,
  "208F": -0.07468,
  "208L": -0.03315,
  "208Y": -0.45453,
  "210F": -0.00949,
  "210M": -0.7005,
  "210R": 0.14354,
  "210S": -0.09722,
  "210W": 0.46772,
  "210Y": 0.14687,
  "211A": 0.05342,
  "211D": 0.37473,
  "211E": 0.16122,
  "211G": -0.74176,
  "211H": -0.18121,
  "211I": 0.19451,
  "211K": -0.64353,
  "211N": -0.09787,
  "211Q": -0.26834,
  "211S": -0.5926,
  "211T": -0.25607,
  "212M": -0.1784,
  "212R": 0.03714,
  "212S": 0.14545,
  "213R": -0.02404,
  "215A": -0.28154,
  "215C": 0.13944,
  "215D": -0.79013,
  "215E": -0.00941,
  "215F": -0.04767,
  "215H": -0.30052,
  "215I": 0.01617,
  "215L": -0.45749,
  "215N": -0.0806,
  "215S": -0.18873,
  "215V": -0.34871,
  "215Y": -0.47358,
  "216I": 0.38439,
  "216L": 0.10852,
  "217S": -0.19829,
  "218E": 0.08147,
  "218R": -0.12555,
  "219D": 0.03163,
  "219E": 0.54974,
  "219G": -0.52388,
  "219H": 0.08645,
  "219N": -0.07772,
  "219Q": -0.11121,
  "219R": -0.16674,
  "219S": -0.16378,
  "219T": -0.15241,
  "219W": 0.0052,
  "221C": 0.6594,
  "221L": 0.05861,
  "221Y": 0.94889,
  "222R": -0.0141,
  "223A": -0.46261,
  "223E": 0.12567,
  "223Q": 0.26013,
  "223R": 0.20667,
  "223T": 0.03801,
  "224D": -0.07464,
  "224K": -1.02185,
  "224V": -0.05603,
  "225F": 0.04284,
  "225H": 0.57969,
  "225L": -0.41718,
  "225S": 0.04716,
  "226S": 0.18048,
  "227C": 1.34639,
  "227L": 1.45769,
  "227V": 0.04284,
  "227Y": 0.32681,
  "228C": -0.00945,
  "228F": -0.12993,
  "228H": 0.12584,
  "228I": -0.33422,
  "228K": 0.7649,
  "228N": 0.1482,
  "228P": -0.08776,
  "228Q": 0.12386,
  "228R": 0.30579,
  "228S": 0.53347,
  "229G": 0.1701,
  "230I": 1.86445,
  "230L": 2.75129,
  "230V": 0.10819,
  "231D": 0.02593,
  "232H": 0.29087,
  "233D": 0.05004,
  "233G": 0.09067,
  "233K": -0.0008,
  "234I": 1.30566,
  "234P": 0.11001,
  "235L": 0.16259,
  "235R": 0.01608,
  "236L": -0.07261,
  "236R": 0.10596,
  "236S": -0.33407,
  "237E": 1.28566,
  "237G": 0.10712,
  "237H": 0.3378,
  "237N": 0.17254,
  "237Y": -0.5667,
  "238I": 0.2348,
  "238N": 0.6508,
  "238R": -0.08422,
  "238S": 0.23003,
  "238T": 1.02386,
  "239I": 0.19559,
  "240A": 0.10057,
  "240I": 0.03131,
  "240K": -0.1246,
  "241A": 0.23818,
  "241I": -0.16889,
  "241M": -0.18662,
  "242H": -0.07346,
  "242K": -0.46903,
  "242L": 0.11673,
  "242R": -0.02749,
  "243A": -0.04273,
  "243H": -0.06132,
  "243Q": -0.18493,
  "243S": -0.78916,
  "243T": -0.7567,
  "244K": 0.11294,
  "244V": 0.1227,
  "245A": 0.22639,
  "245E": 0.18153,
  "245G": 0.00231,
  "245H": -0.04809,
  "245I": -0.99494,
  "245K": -0.13307,
  "245L": 0.08373,
  "245M": -0.18713,
  "245N": -0.05019,
  "245Q": 0.17609,
  "245R": -0.1623,
  "245T": 0.34331,
  "247A": -0.1107,
  "247S": 0.09722,
  "248C": -0.33739,
  "248D": -0.54145,
  "248K": 0.00563,
  "248N": -0.30128,
  "248Q": 0.05291,
  "248S": -0.03902,
  "248T": 0.17903,
  "248V": -0.07572,
  "249Q": 0.24881,
  "249R": 0.8408,
  "250E": -0.00217,
  "250G": -0.11545,
  "250N": 0.02454,
  "250S": 0.32019,
  "250T": -0.28517,
  "250V": -0.49351,
  "251C": -0.41743,
  "251D": -0.36717,
  "251H": 0.24428,
  "251I": 0.05373,
  "251N": -0.20368,
  "251Q": -0.13605,
  "251T": 0.31949,
  "251V": 0.09864,
  "253S": -0.43652,
  "254I": 0.35459,
  "255H": -0.03622,
  "256E": 0.14705,
  "257L": -0.17505,
  "257T": 0.25276,
  "259R": -0.01371,
  "260I": 0.17326,
  "261A": -0.13082,
  "261G": 0.21499,
  "261I": -0.02248,
  "262E": -0.11083,
  "262R": -0.06666,
  "263R": -0.30907,
  "265D": -0.36711,
  "265T": -0.16994,
  "266G": -0.39579,
  "268G": -0.21092,
  "269E": 0.14464,
  "269H": 0.25521,
  "270V": 0.04983,
  "273E": 0.37468,
  "273R": -0.24083,
  "274V": 0.55626,
  "275Q": 0.33361,
  "275R": 0.08204,
  "276A": -0.24182,
  "276I": 1.20954,
  "276T": -0.18135,
  "278E": 0.41649,
  "278H": -0.1853,
  "278K": 0.02831,
  "278L": -0.02507,
  "278N": -0.60947,
  "278Y": -0.23558,
  "279F": 0.25482,
  "281R": 0.06479,
  "282C": 0.14228,
  "282F": 0.08598,
  "283F": -0.05613,
  "283I": 0.14179,
  "284K": 0.4418,
  "284S": -0.13177,
  "285A": -0.1253,
  "286A": -0.38361,
  "286I": 0.18828,
  "286N": -0.05695,
  "286P": 0.13696,
  "286V": -0.33338,
  "287N": 0.05194,
  "287Q": -0.00785,
  "287R": -0.1801,
  "288G": 0.32305,
  "288P": 0.54433,
  "288S": -0.1494,
  "288T": -0.78323,
  "288V": 0.09349,
  "289F": -0.16898,
  "289I": -0.13817,
  "291A": 0.00713,
  "291D": -0.66661,
  "291G": -0.19346,
  "292I": -0.23965,
  "292M": 0.37062,
  "293L": 0.22616,
  "293M": 0.03688,
  "293V": -0.25726,
  "294A": 0.08569,
  "294I": -0.00072,
  "294L": -0.03079,
  "294Q": 0.14965,
  "294S": -0.54293,
  "294T": 0.03623,
  "294V": -0.11757,
  "295M": -0.09963,
  "296N": 0.17903,
  "296S": -0.62674,
  "297A": -0.01171,
  "297D": -0.03642,
  "297G": -0.06303,
  "297K": -0.00847,
  "297P": -0.05554,
  "297Q": -0.39762,
  "297R": 0.2073,
  "297T": -0.10391,
  "297V": 0.00409,
  "298A": 0.53989,
  "298D": 0.62443,
  "298K": -0.54768,
  "299G": 0.08027,
  "300D": -0.06181,
  "300Q": 0.0268,
  "301F": -0.19296,
  "301I": -0.33951,
  "301M": 0.11241,
  "301W": -0.05359,
  "302D": -0.37917,
  "303M": -0.10092,
  "304E": -0.08586,
  "304G": 0.00268,
  "307K": 0.1408,
  "310I": 0.16907,
  "311R": -0.09361,
  "312A": -0.04831,
  "312D": -0.17277,
  "312G": -0.17373,
  "312H": 0.0007,
  "312N": -0.01199,
  "312Q": 0.50463,
  "313S": 0.03102,
  "313T": 0.51371,
  "314M": 0.25013,
  "317A": -0.0066,
  "318F": 0.94984,
  "321S": -0.02392,
  "322A": 0.6431,
  "322L": -0.12989,
  "322T": 0.98816,
  "323R": 0.29867,
  "324E": 0.19943,
  "324G": -0.04036,
  "324P": -0.42749,
  "325I": 0.57257,
  "326L": 0.00515,
  "326M": -0.0643,
  "326R": 0.09335,
  "326T": -0.17154,
  "326V": -0.38044,
  "327T": -0.10903,
  "327V": -0.09798,
  "328D": 0.57552,
  "329L": -0.31065,
  "329V": -0.19892,
  "331R": 0.04812,
  "333D": 0.02486,
  "333E": 0.14586,
  "334C": 0.11826,
  "334D": -0.48941,
  "334E": 0.12149,
  "334H": 1.20424,
  "334I": 0.39176,
  "334L": -0.11214,
  "334N": 0.22729,
  "334P": 0.83175,
  "334R": 0.0021,
  "334S": -0.0441,
  "334V": 0.09354,
  "334Y": -0.10746,
  "335C": 0.10279,
  "335D": 0.71388,
  "335E": -0.1825,
  "335S": 1.19511,
  "338S": -0.73117,
  "339W": -0.08688,
  "341F": 0.02003,
  "341L": -0.34784,
  "341V": -0.0542,
  "342F": -0.05608,
  "343H": -0.09798,
  "344D": 0.02292,
  "345E": 0.0062,
  "345L": -0.19098,
  "345Q": -0.25016,
  "345T": 0.02866,
  "346C": 0.40943,
  "346H": -0.1416,
  "346Y": 0.69484,
  "347Q": 0.09002,
  "347R": 0.08033,
  "348I": 0.63266,
  "348T": 0.39782,
  "350R": 0.74429,
  "355S": -0.05454,
  "355T": -0.39632,
  "356K": -0.13925,
  "357I": -0.24387,
  "357K": 0.36112,
  "357L": -0.72223,
  "357R": 0.25009,
  "357S": 0.12162,
  "357T": 0.23341,
  "357V": -0.76924,
  "358G": 0.17812,
  "358K": 0.27116,
  "359A": 0.10827,
  "359N": 0.01629,
  "359S": -0.07776,
  "359T": 0.25347,
  "360T": 0.57735,
  "360V": 0.45514,
  "364E": -0.29553,
  "365I": 0.4252,
  "366R": -0.10546,
  "367L": -0.03106,
  "369A": -0.01412,
  "369I": 0.12971,
  "369S": 0.07225,
  "369V": 0.77278,
  "370A": -0.03138,
  "370D": 0.82873,
  "370G": 0.08719,
  "370Q": -0.02771,
  "371L": -0.03197,
  "371T": 0.03493,
  "371V": -0.1835,
  "372I": -0.11142,
  "372L": 0.00105,
  "374R": -0.1584,
  "375A": 0.60878,
  "375V": -0.17679,
  "377I": 0.03016,
  "377L": -0.03401,
  "377M": 0.30207,
  "377Q": -0.10895,
  "377R": -0.5674,
  "377V": -0.14221,
  "379C": 0.37487,
  "379G": 0.93632,
  "380V": -0.07269,
  "381I": -0.08812,
  "382L": 0.21219,
  "382V": 0.09323,
  "385R": 0.42076,
  "386A": 0.77319,
  "386I": -0.44784,
  "386M": 0.4287,
  "386S": -0.0679,
  "386V": 0.20027,
  "388R": -0.1012,
  "390R": 0.06772,
  "393M": 0.15517,
  "394H": 0.11311,
  "394L": 0.14154,
  "394R": 0.2069,
  "394T": 0.09096,
  "395R": 0.06462,
  "396D": -0.07637,
  "397I": 0.17903,
  "399D": -0.5741,
  "399G": 0.10103,
  "403A": -0.11696,
  "403M": -0.20284,
  "404D": 0.08956,
  "404N": 1.37969,
  "413D": 0.18365,
  "417I": -0.03357,
  "428R": -0.18609,
  "431T": -0.02904,
  "432D": -0.40287,
  "435A": 0.20992,
  "435E": -0.11883,
  "435I": -0.05664,
  "435M": 0.17903,
  "435P": -0.13088,
  "436E": 0.08378,
  "440Y": 0.29134,
  "446S": -0.00072,
  "447S": -0.90746,
  "449D": -0.00889,
  "452A": 0.17903,
  "461K": -0.10976,
  "467I": 0.26281,
  "470A": -0.0469,
  "470N": -0.14528,
  "471E": 0.11051,
  "471N": -0.04824,
  "491S": -0.03992,
  "506L": -0.0158,
  "517I": -0.06833,
  "524E": 0.00902,
  "527N": 0.17903,
  "530R": 0.06046,
  "534S": 0.11051,
  "550G": 0.04346,
  "554N": 0.1024,
  "554S": -0.10993,
  "554T": -0.12518,
  "556V": -0.1436,
  "558R": -0.25559,
  "559I": -0.0929
 }
}